Language model created by QuickLM on Sun May  1 13:49:19 EDT 2016
Copyright (c) 1996-2010 Carnegie Mellon University and Alexander I. Rudnicky

The model is in standard ARPA format, designed by Doug Paul while he was at MITRE.

The code that was used to produce this language model is available in Open Source.
Please visit http://www.speech.cs.cmu.edu/tools/ for more information

The (fixed) discount mass is 0.5. The backoffs are computed using the ratio method.
This model based on a corpus of 73 sentences and 74 words

\data\
ngram 1=74
ngram 2=144
ngram 3=72

\1-grams:
-0.7782 </s> -0.3010
-0.7782 <s> -0.2218
-2.6415 ABLE -0.2218
-2.6415 ASK -0.2218
-2.6415 BAD -0.2218
-2.6415 BIG -0.2218
-2.6415 CALL -0.2218
-2.6415 CASE -0.2218
-2.6415 CHILD -0.2218
-2.6415 COME -0.2218
-2.6415 COMPANY -0.2218
-2.6415 DAY -0.2218
-2.6415 DIFFERENT -0.2218
-2.6415 EARLY -0.2218
-2.6415 EYE -0.2218
-2.6415 FACT -0.2218
-2.6415 FEEL -0.2218
-2.6415 FEW -0.2218
-2.6415 FIND -0.2218
-2.6415 FIRST -0.2218
-2.6415 GIVE -0.2218
-2.6415 GOOD -0.2218
-2.6415 GOVERNMENT -0.2218
-2.6415 GREAT -0.2218
-2.6415 GROUP -0.2218
-2.6415 HAND -0.2218
-2.6415 HAVE -0.2218
-2.6415 HIGH -0.2218
-2.6415 IMPORTANT -0.2218
-2.6415 JAMES -0.2218
-2.6415 JARVIS -0.2218
-2.6415 KNOW -0.2218
-2.6415 LARGE -0.2218
-2.6415 LAST -0.2218
-2.6415 LEAVE -0.2218
-2.6415 LIFE -0.2218
-2.6415 LITTLE -0.2218
-2.6415 LONG -0.2218
-2.6415 LOOK -0.2218
-2.6415 MAKE -0.2218
-2.6415 MAN -0.2218
-2.6415 NEW -0.2218
-2.6415 NEXT -0.2218
-2.6415 NUMBER -0.2218
-2.6415 OLD -0.2218
-2.6415 OTHER -0.2218
-2.6415 OWN -0.2218
-2.6415 PART -0.2218
-2.6415 PERSON -0.2218
-2.6415 PLACE -0.2218
-2.6415 POINT -0.2218
-2.6415 PROBLEM -0.2218
-2.6415 PUBLIC -0.2218
-2.6415 RIGHT -0.2218
-2.6415 SAME -0.2218
-2.6415 SAY -0.2218
-2.6415 SEE -0.2218
-2.6415 SEEM -0.2218
-2.6415 SMALL -0.2218
-2.6415 TAKE -0.2218
-2.6415 TELL -0.2218
-2.6415 THING -0.2218
-2.6415 THINK -0.2218
-2.6415 TIME -0.2218
-2.6415 TRY -0.2218
-2.6415 USE -0.2218
-2.6415 WANT -0.2218
-2.6415 WAY -0.2218
-2.6415 WEEK -0.2218
-2.6415 WOMAN -0.2218
-2.3404 WORK -0.2218
-2.6415 WORLD -0.2218
-2.6415 YEAR -0.2218
-2.6415 YOUNG -0.2218

\2-grams:
-2.1644 <s> ABLE 0.0000
-2.1644 <s> ASK 0.0000
-2.1644 <s> BAD 0.0000
-2.1644 <s> BIG 0.0000
-2.1644 <s> CALL 0.0000
-2.1644 <s> CASE 0.0000
-2.1644 <s> CHILD 0.0000
-2.1644 <s> COME 0.0000
-2.1644 <s> COMPANY 0.0000
-2.1644 <s> DAY 0.0000
-2.1644 <s> DIFFERENT 0.0000
-2.1644 <s> EARLY 0.0000
-2.1644 <s> EYE 0.0000
-2.1644 <s> FACT 0.0000
-2.1644 <s> FEEL 0.0000
-2.1644 <s> FEW 0.0000
-2.1644 <s> FIND 0.0000
-2.1644 <s> FIRST 0.0000
-2.1644 <s> GIVE 0.0000
-2.1644 <s> GOOD 0.0000
-2.1644 <s> GOVERNMENT 0.0000
-2.1644 <s> GREAT 0.0000
-2.1644 <s> GROUP 0.0000
-2.1644 <s> HAND 0.0000
-2.1644 <s> HAVE 0.0000
-2.1644 <s> HIGH 0.0000
-2.1644 <s> IMPORTANT 0.0000
-2.1644 <s> JAMES 0.0000
-2.1644 <s> JARVIS 0.0000
-2.1644 <s> KNOW 0.0000
-2.1644 <s> LARGE 0.0000
-2.1644 <s> LAST 0.0000
-2.1644 <s> LEAVE 0.0000
-2.1644 <s> LIFE 0.0000
-2.1644 <s> LITTLE 0.0000
-2.1644 <s> LONG 0.0000
-2.1644 <s> LOOK 0.0000
-2.1644 <s> MAKE 0.0000
-2.1644 <s> MAN 0.0000
-2.1644 <s> NEW 0.0000
-2.1644 <s> NEXT 0.0000
-2.1644 <s> NUMBER 0.0000
-2.1644 <s> OLD 0.0000
-2.1644 <s> OTHER 0.0000
-2.1644 <s> OWN 0.0000
-2.1644 <s> PART 0.0000
-2.1644 <s> PERSON 0.0000
-2.1644 <s> PLACE 0.0000
-2.1644 <s> POINT 0.0000
-2.1644 <s> PROBLEM 0.0000
-2.1644 <s> PUBLIC 0.0000
-2.1644 <s> RIGHT 0.0000
-2.1644 <s> SAME 0.0000
-2.1644 <s> SAY 0.0000
-2.1644 <s> SEE 0.0000
-2.1644 <s> SEEM 0.0000
-2.1644 <s> SMALL 0.0000
-2.1644 <s> TAKE 0.0000
-2.1644 <s> TELL 0.0000
-2.1644 <s> THING 0.0000
-2.1644 <s> THINK 0.0000
-2.1644 <s> TIME 0.0000
-2.1644 <s> TRY 0.0000
-2.1644 <s> USE 0.0000
-2.1644 <s> WANT 0.0000
-2.1644 <s> WAY 0.0000
-2.1644 <s> WEEK 0.0000
-2.1644 <s> WOMAN 0.0000
-1.8633 <s> WORK 0.0000
-2.1644 <s> WORLD 0.0000
-2.1644 <s> YEAR 0.0000
-2.1644 <s> YOUNG 0.0000
-0.3010 ABLE </s> -0.3010
-0.3010 ASK </s> -0.3010
-0.3010 BAD </s> -0.3010
-0.3010 BIG </s> -0.3010
-0.3010 CALL </s> -0.3010
-0.3010 CASE </s> -0.3010
-0.3010 CHILD </s> -0.3010
-0.3010 COME </s> -0.3010
-0.3010 COMPANY </s> -0.3010
-0.3010 DAY </s> -0.3010
-0.3010 DIFFERENT </s> -0.3010
-0.3010 EARLY </s> -0.3010
-0.3010 EYE </s> -0.3010
-0.3010 FACT </s> -0.3010
-0.3010 FEEL </s> -0.3010
-0.3010 FEW </s> -0.3010
-0.3010 FIND </s> -0.3010
-0.3010 FIRST </s> -0.3010
-0.3010 GIVE </s> -0.3010
-0.3010 GOOD </s> -0.3010
-0.3010 GOVERNMENT </s> -0.3010
-0.3010 GREAT </s> -0.3010
-0.3010 GROUP </s> -0.3010
-0.3010 HAND </s> -0.3010
-0.3010 HAVE </s> -0.3010
-0.3010 HIGH </s> -0.3010
-0.3010 IMPORTANT </s> -0.3010
-0.3010 JAMES </s> -0.3010
-0.3010 JARVIS </s> -0.3010
-0.3010 KNOW </s> -0.3010
-0.3010 LARGE </s> -0.3010
-0.3010 LAST </s> -0.3010
-0.3010 LEAVE </s> -0.3010
-0.3010 LIFE </s> -0.3010
-0.3010 LITTLE </s> -0.3010
-0.3010 LONG </s> -0.3010
-0.3010 LOOK </s> -0.3010
-0.3010 MAKE </s> -0.3010
-0.3010 MAN </s> -0.3010
-0.3010 NEW </s> -0.3010
-0.3010 NEXT </s> -0.3010
-0.3010 NUMBER </s> -0.3010
-0.3010 OLD </s> -0.3010
-0.3010 OTHER </s> -0.3010
-0.3010 OWN </s> -0.3010
-0.3010 PART </s> -0.3010
-0.3010 PERSON </s> -0.3010
-0.3010 PLACE </s> -0.3010
-0.3010 POINT </s> -0.3010
-0.3010 PROBLEM </s> -0.3010
-0.3010 PUBLIC </s> -0.3010
-0.3010 RIGHT </s> -0.3010
-0.3010 SAME </s> -0.3010
-0.3010 SAY </s> -0.3010
-0.3010 SEE </s> -0.3010
-0.3010 SEEM </s> -0.3010
-0.3010 SMALL </s> -0.3010
-0.3010 TAKE </s> -0.3010
-0.3010 TELL </s> -0.3010
-0.3010 THING </s> -0.3010
-0.3010 THINK </s> -0.3010
-0.3010 TIME </s> -0.3010
-0.3010 TRY </s> -0.3010
-0.3010 USE </s> -0.3010
-0.3010 WANT </s> -0.3010
-0.3010 WAY </s> -0.3010
-0.3010 WEEK </s> -0.3010
-0.3010 WOMAN </s> -0.3010
-0.3010 WORK </s> -0.3010
-0.3010 WORLD </s> -0.3010
-0.3010 YEAR </s> -0.3010
-0.3010 YOUNG </s> -0.3010

\3-grams:
-0.3010 <s> ABLE </s>
-0.3010 <s> ASK </s>
-0.3010 <s> BAD </s>
-0.3010 <s> BIG </s>
-0.3010 <s> CALL </s>
-0.3010 <s> CASE </s>
-0.3010 <s> CHILD </s>
-0.3010 <s> COME </s>
-0.3010 <s> COMPANY </s>
-0.3010 <s> DAY </s>
-0.3010 <s> DIFFERENT </s>
-0.3010 <s> EARLY </s>
-0.3010 <s> EYE </s>
-0.3010 <s> FACT </s>
-0.3010 <s> FEEL </s>
-0.3010 <s> FEW </s>
-0.3010 <s> FIND </s>
-0.3010 <s> FIRST </s>
-0.3010 <s> GIVE </s>
-0.3010 <s> GOOD </s>
-0.3010 <s> GOVERNMENT </s>
-0.3010 <s> GREAT </s>
-0.3010 <s> GROUP </s>
-0.3010 <s> HAND </s>
-0.3010 <s> HAVE </s>
-0.3010 <s> HIGH </s>
-0.3010 <s> IMPORTANT </s>
-0.3010 <s> JAMES </s>
-0.3010 <s> JARVIS </s>
-0.3010 <s> KNOW </s>
-0.3010 <s> LARGE </s>
-0.3010 <s> LAST </s>
-0.3010 <s> LEAVE </s>
-0.3010 <s> LIFE </s>
-0.3010 <s> LITTLE </s>
-0.3010 <s> LONG </s>
-0.3010 <s> LOOK </s>
-0.3010 <s> MAKE </s>
-0.3010 <s> MAN </s>
-0.3010 <s> NEW </s>
-0.3010 <s> NEXT </s>
-0.3010 <s> NUMBER </s>
-0.3010 <s> OLD </s>
-0.3010 <s> OTHER </s>
-0.3010 <s> OWN </s>
-0.3010 <s> PART </s>
-0.3010 <s> PERSON </s>
-0.3010 <s> PLACE </s>
-0.3010 <s> POINT </s>
-0.3010 <s> PROBLEM </s>
-0.3010 <s> PUBLIC </s>
-0.3010 <s> RIGHT </s>
-0.3010 <s> SAME </s>
-0.3010 <s> SAY </s>
-0.3010 <s> SEE </s>
-0.3010 <s> SEEM </s>
-0.3010 <s> SMALL </s>
-0.3010 <s> TAKE </s>
-0.3010 <s> TELL </s>
-0.3010 <s> THING </s>
-0.3010 <s> THINK </s>
-0.3010 <s> TIME </s>
-0.3010 <s> TRY </s>
-0.3010 <s> USE </s>
-0.3010 <s> WANT </s>
-0.3010 <s> WAY </s>
-0.3010 <s> WEEK </s>
-0.3010 <s> WOMAN </s>
-0.3010 <s> WORK </s>
-0.3010 <s> WORLD </s>
-0.3010 <s> YEAR </s>
-0.3010 <s> YOUNG </s>

\end\
