Language model created by QuickLM on Tue May  3 10:40:35 EDT 2016
Copyright (c) 1996-2010 Carnegie Mellon University and Alexander I. Rudnicky

The model is in standard ARPA format, designed by Doug Paul while he was at MITRE.

The code that was used to produce this language model is available in Open Source.
Please visit http://www.speech.cs.cmu.edu/tools/ for more information

The (fixed) discount mass is 0.5. The backoffs are computed using the ratio method.
This model based on a corpus of 49 sentences and 51 words

\data\
ngram 1=51
ngram 2=98
ngram 3=49

\1-grams:
-0.7782 </s> -0.3010
-0.7782 <s> -0.2218
-2.4683 ASK -0.2218
-2.4683 CALL -0.2218
-2.4683 CHILD -0.2218
-2.4683 COME -0.2218
-2.4683 COMPANY -0.2218
-2.4683 DIFFERENT -0.2218
-2.4683 EARLY -0.2218
-2.4683 FACT -0.2218
-2.4683 FEEL -0.2218
-2.4683 FEW -0.2218
-2.4683 FIND -0.2218
-2.4683 FIRST -0.2218
-2.4683 GOVERNMENT -0.2218
-2.4683 GREAT -0.2218
-2.4683 GROUP -0.2218
-2.4683 HAND -0.2218
-2.4683 HIGH -0.2218
-2.4683 IMPORTANT -0.2218
-2.4683 JAMES -0.2218
-2.4683 JARVIS -0.2218
-2.4683 KNOW -0.2218
-2.4683 LARGE -0.2218
-2.4683 LEAVE -0.2218
-2.4683 LIFE -0.2218
-2.4683 LITTLE -0.2218
-2.4683 LONG -0.2218
-2.4683 MAKE -0.2218
-2.4683 NEW -0.2218
-2.4683 NEXT -0.2218
-2.4683 OTHER -0.2218
-2.4683 OWN -0.2218
-2.4683 PERSON -0.2218
-2.4683 PLACE -0.2218
-2.4683 POINT -0.2218
-2.4683 PROBLEM -0.2218
-2.4683 PUBLIC -0.2218
-2.4683 RIGHT -0.2218
-2.4683 SAY -0.2218
-2.4683 SEEM -0.2218
-2.4683 SMALL -0.2218
-2.4683 TAKE -0.2218
-2.4683 TELL -0.2218
-2.4683 TIME -0.2218
-2.4683 WANT -0.2218
-2.4683 WEEK -0.2218
-2.4683 WORK -0.2218
-2.4683 WORLD -0.2218
-2.4683 YEAR -0.2218
-2.4683 YOUNG -0.2218

\2-grams:
-1.9912 <s> ASK 0.0000
-1.9912 <s> CALL 0.0000
-1.9912 <s> CHILD 0.0000
-1.9912 <s> COME 0.0000
-1.9912 <s> COMPANY 0.0000
-1.9912 <s> DIFFERENT 0.0000
-1.9912 <s> EARLY 0.0000
-1.9912 <s> FACT 0.0000
-1.9912 <s> FEEL 0.0000
-1.9912 <s> FEW 0.0000
-1.9912 <s> FIND 0.0000
-1.9912 <s> FIRST 0.0000
-1.9912 <s> GOVERNMENT 0.0000
-1.9912 <s> GREAT 0.0000
-1.9912 <s> GROUP 0.0000
-1.9912 <s> HAND 0.0000
-1.9912 <s> HIGH 0.0000
-1.9912 <s> IMPORTANT 0.0000
-1.9912 <s> JAMES 0.0000
-1.9912 <s> JARVIS 0.0000
-1.9912 <s> KNOW 0.0000
-1.9912 <s> LARGE 0.0000
-1.9912 <s> LEAVE 0.0000
-1.9912 <s> LIFE 0.0000
-1.9912 <s> LITTLE 0.0000
-1.9912 <s> LONG 0.0000
-1.9912 <s> MAKE 0.0000
-1.9912 <s> NEW 0.0000
-1.9912 <s> NEXT 0.0000
-1.9912 <s> OTHER 0.0000
-1.9912 <s> OWN 0.0000
-1.9912 <s> PERSON 0.0000
-1.9912 <s> PLACE 0.0000
-1.9912 <s> POINT 0.0000
-1.9912 <s> PROBLEM 0.0000
-1.9912 <s> PUBLIC 0.0000
-1.9912 <s> RIGHT 0.0000
-1.9912 <s> SAY 0.0000
-1.9912 <s> SEEM 0.0000
-1.9912 <s> SMALL 0.0000
-1.9912 <s> TAKE 0.0000
-1.9912 <s> TELL 0.0000
-1.9912 <s> TIME 0.0000
-1.9912 <s> WANT 0.0000
-1.9912 <s> WEEK 0.0000
-1.9912 <s> WORK 0.0000
-1.9912 <s> WORLD 0.0000
-1.9912 <s> YEAR 0.0000
-1.9912 <s> YOUNG 0.0000
-0.3010 ASK </s> -0.3010
-0.3010 CALL </s> -0.3010
-0.3010 CHILD </s> -0.3010
-0.3010 COME </s> -0.3010
-0.3010 COMPANY </s> -0.3010
-0.3010 DIFFERENT </s> -0.3010
-0.3010 EARLY </s> -0.3010
-0.3010 FACT </s> -0.3010
-0.3010 FEEL </s> -0.3010
-0.3010 FEW </s> -0.3010
-0.3010 FIND </s> -0.3010
-0.3010 FIRST </s> -0.3010
-0.3010 GOVERNMENT </s> -0.3010
-0.3010 GREAT </s> -0.3010
-0.3010 GROUP </s> -0.3010
-0.3010 HAND </s> -0.3010
-0.3010 HIGH </s> -0.3010
-0.3010 IMPORTANT </s> -0.3010
-0.3010 JAMES </s> -0.3010
-0.3010 JARVIS </s> -0.3010
-0.3010 KNOW </s> -0.3010
-0.3010 LARGE </s> -0.3010
-0.3010 LEAVE </s> -0.3010
-0.3010 LIFE </s> -0.3010
-0.3010 LITTLE </s> -0.3010
-0.3010 LONG </s> -0.3010
-0.3010 MAKE </s> -0.3010
-0.3010 NEW </s> -0.3010
-0.3010 NEXT </s> -0.3010
-0.3010 OTHER </s> -0.3010
-0.3010 OWN </s> -0.3010
-0.3010 PERSON </s> -0.3010
-0.3010 PLACE </s> -0.3010
-0.3010 POINT </s> -0.3010
-0.3010 PROBLEM </s> -0.3010
-0.3010 PUBLIC </s> -0.3010
-0.3010 RIGHT </s> -0.3010
-0.3010 SAY </s> -0.3010
-0.3010 SEEM </s> -0.3010
-0.3010 SMALL </s> -0.3010
-0.3010 TAKE </s> -0.3010
-0.3010 TELL </s> -0.3010
-0.3010 TIME </s> -0.3010
-0.3010 WANT </s> -0.3010
-0.3010 WEEK </s> -0.3010
-0.3010 WORK </s> -0.3010
-0.3010 WORLD </s> -0.3010
-0.3010 YEAR </s> -0.3010
-0.3010 YOUNG </s> -0.3010

\3-grams:
-0.3010 <s> ASK </s>
-0.3010 <s> CALL </s>
-0.3010 <s> CHILD </s>
-0.3010 <s> COME </s>
-0.3010 <s> COMPANY </s>
-0.3010 <s> DIFFERENT </s>
-0.3010 <s> EARLY </s>
-0.3010 <s> FACT </s>
-0.3010 <s> FEEL </s>
-0.3010 <s> FEW </s>
-0.3010 <s> FIND </s>
-0.3010 <s> FIRST </s>
-0.3010 <s> GOVERNMENT </s>
-0.3010 <s> GREAT </s>
-0.3010 <s> GROUP </s>
-0.3010 <s> HAND </s>
-0.3010 <s> HIGH </s>
-0.3010 <s> IMPORTANT </s>
-0.3010 <s> JAMES </s>
-0.3010 <s> JARVIS </s>
-0.3010 <s> KNOW </s>
-0.3010 <s> LARGE </s>
-0.3010 <s> LEAVE </s>
-0.3010 <s> LIFE </s>
-0.3010 <s> LITTLE </s>
-0.3010 <s> LONG </s>
-0.3010 <s> MAKE </s>
-0.3010 <s> NEW </s>
-0.3010 <s> NEXT </s>
-0.3010 <s> OTHER </s>
-0.3010 <s> OWN </s>
-0.3010 <s> PERSON </s>
-0.3010 <s> PLACE </s>
-0.3010 <s> POINT </s>
-0.3010 <s> PROBLEM </s>
-0.3010 <s> PUBLIC </s>
-0.3010 <s> RIGHT </s>
-0.3010 <s> SAY </s>
-0.3010 <s> SEEM </s>
-0.3010 <s> SMALL </s>
-0.3010 <s> TAKE </s>
-0.3010 <s> TELL </s>
-0.3010 <s> TIME </s>
-0.3010 <s> WANT </s>
-0.3010 <s> WEEK </s>
-0.3010 <s> WORK </s>
-0.3010 <s> WORLD </s>
-0.3010 <s> YEAR </s>
-0.3010 <s> YOUNG </s>

\end\
